8 100
the -0.005314 0.006137 -0.004956 -0.003019 0.007035 -0.008180 0.000656 0.010132 0.006340 0.000016 0.008749 -0.006564 0.006233 0.007463 0.001215 -0.008184 0.007139 0.000807 -0.007329 -0.005361 0.005499 -0.005825 -0.000581 -0.000158 -0.008152 0.009375 -0.008676 0.006686 0.002537 0.003871 0.005749 0.002595 -0.008982 0.002245 -0.004967 0.002679 -0.006422 0.002098 0.002190 -0.000131 -0.000730 0.003547 -0.008902 -0.007592 -0.000055 0.000779 0.006545 0.003721 0.003797 0.007595 0.004426 -0.002270 -0.004139 0.003504 -0.010085 0.002186 -0.005814 -0.002776 0.009739 -0.004122 -0.002751 -0.008780 0.003375 -0.007342 0.004173 0.002626 0.006034 -0.006553 -0.006985 0.005960 0.003997 0.006475 -0.005340 0.009482 0.009030 -0.004967 0.003993 0.002838 0.001173 0.002854 0.004777 0.003647 -0.004459 0.002662 -0.000623 -0.000284 -0.001093 0.008616 0.003411 -0.001413 -0.002330 0.007881 0.002868 0.007664 -0.008121 -0.000013 -0.003945 -0.006780 0.007149 -0.005634 
brown -0.001162 0.008142 0.005258 0.001746 0.008197 -0.003673 0.009905 0.002915 0.003207 -0.009502 -0.003624 0.002360 -0.003941 0.003880 0.009137 0.004760 0.007801 -0.002112 -0.006096 -0.000382 -0.008192 0.009517 -0.009809 -0.001000 0.005415 0.006789 -0.000259 0.006836 0.002124 0.005881 0.003474 0.003143 -0.002057 0.009313 0.007207 0.006896 0.007145 -0.008498 -0.001617 0.006414 0.000777 0.009085 0.008230 0.000816 0.008902 -0.005032 -0.004716 -0.004426 0.007835 -0.008707 0.006984 -0.006737 -0.001190 0.005919 0.005336 0.007963 -0.000323 0.007396 -0.009790 -0.004997 0.006713 0.009208 0.001756 -0.002777 0.008624 -0.008332 0.003669 0.009403 -0.001072 0.002263 0.005183 0.002353 0.005104 0.000220 0.009067 0.006396 -0.003980 -0.006709 -0.005618 -0.004286 -0.003772 -0.001509 -0.001705 0.000141 0.007201 -0.006384 -0.001791 0.010071 -0.008064 -0.004489 0.000754 -0.000179 -0.007826 0.008730 -0.005873 -0.002732 0.002526 0.008544 -0.008563 0.006579 
lazy 0.004685 -0.002186 0.007302 0.009451 -0.005363 -0.009792 0.004273 -0.002723 0.001644 -0.009733 -0.009324 0.003621 -0.002169 0.000451 -0.001117 0.009449 -0.001409 -0.004680 0.005496 -0.007482 0.009897 -0.009923 0.001593 -0.005137 0.001828 -0.006054 -0.001658 -0.000942 -0.008195 -0.001326 -0.002944 -0.008638 -0.003973 -0.005489 -0.001328 -0.001464 0.007718 -0.008680 0.005073 -0.002920 -0.005854 0.008144 0.008190 0.008128 0.008086 0.009905 -0.003266 0.005144 -0.006216 0.006934 0.002666 0.006800 -0.003260 -0.007738 0.006986 0.000226 -0.004508 -0.003147 -0.004437 0.003393 0.009345 -0.005314 0.003456 -0.007153 0.001451 -0.004228 -0.001065 -0.007050 0.005508 -0.003212 0.000651 0.000431 -0.006372 0.007113 -0.007089 0.005123 -0.005022 0.001457 -0.009642 -0.009331 0.000045 -0.003463 -0.004585 0.001629 0.007782 0.008577 -0.006577 -0.000058 -0.005952 -0.008500 -0.001779 -0.005933 0.004621 -0.002579 -0.008585 0.001861 -0.005444 -0.003316 0.009096 -0.000325 
dog 0.003469 0.005766 0.003944 0.004415 -0.003664 -0.004862 0.001917 0.007773 -0.005347 0.004384 -0.000222 0.007652 0.007602 -0.006869 0.002522 0.009801 -0.001491 -0.004280 0.001144 -0.000239 -0.008044 0.004978 -0.008167 0.006640 0.003680 0.009046 0.006468 -0.005852 0.003134 -0.002572 0.005131 0.001822 -0.007311 -0.006455 0.001310 -0.007868 -0.009326 -0.009415 0.001653 -0.001706 -0.006256 0.006650 -0.001558 0.002676 0.002490 0.007261 -0.000122 -0.005903 0.001486 -0.003945 -0.005676 0.000790 -0.005281 -0.005607 0.003481 0.009918 -0.005893 0.009039 0.002065 0.007685 -0.001806 -0.005797 0.005492 -0.001799 0.007376 0.006485 -0.005283 -0.008626 -0.008225 0.002161 -0.009278 -0.001425 -0.002199 0.005173 -0.009775 0.002026 0.009092 -0.001991 0.004824 -0.005568 0.003051 0.002536 0.007775 -0.002982 -0.005809 -0.006635 0.009373 0.005435 0.006281 -0.006539 -0.004868 0.005814 -0.002893 0.006389 -0.006170 -0.006322 -0.003168 0.001393 -0.009802 -0.009791 
over 0.006690 0.005584 -0.001364 -0.008625 -0.007371 0.007170 0.007323 0.003828 -0.003592 -0.005522 -0.003514 -0.003737 0.001105 0.006174 0.009194 -0.007254 -0.003933 0.006629 0.006339 0.001222 0.006480 0.008488 0.000087 0.009341 -0.006057 -0.000484 -0.009537 -0.006964 0.000708 0.008751 0.008848 0.005232 -0.003495 -0.000725 -0.004707 0.007939 -0.008157 -0.005896 -0.008550 0.002846 -0.002475 -0.003418 0.006266 -0.007251 0.001036 0.007138 -0.001331 -0.009163 -0.009936 -0.009936 -0.001062 0.003225 0.008853 -0.002315 -0.000404 0.003657 -0.002186 -0.004950 0.008741 -0.001121 -0.002615 0.009265 0.005799 0.004254 0.008676 0.008458 -0.006666 0.009147 0.007587 0.007067 -0.002573 -0.004058 0.003502 -0.004474 0.002415 0.001579 0.003667 -0.002832 -0.000884 0.008153 -0.000967 -0.000030 -0.008354 -0.008761 -0.006285 0.001141 0.005162 0.004645 0.004364 -0.005323 0.002277 0.005636 -0.008795 0.009207 -0.009207 -0.003261 0.006751 0.008155 0.002607 0.006779 
jumps -0.006957 0.002096 0.003466 -0.007369 -0.000565 -0.006583 -0.002834 -0.010000 0.009479 -0.007506 0.007416 0.002338 0.003936 -0.006204 -0.001536 -0.007203 0.004151 0.006974 0.003713 -0.006688 0.000033 -0.005659 0.007049 -0.004826 -0.008627 -0.007144 0.006354 0.003790 -0.003316 -0.000101 0.001989 0.007201 -0.005273 -0.000759 0.002825 -0.001359 -0.004778 0.006172 0.009943 0.009877 -0.002865 -0.008591 -0.000109 -0.005743 0.001622 0.002576 0.000150 0.004431 0.007761 0.009769 -0.008037 0.007411 -0.003310 -0.006019 0.008122 0.006939 0.000292 0.000746 -0.009194 0.007160 0.003176 -0.009885 -0.005296 -0.005252 0.009074 -0.008641 -0.006005 0.007953 -0.002014 0.003857 -0.007462 0.000378 -0.005713 -0.001806 0.000030 -0.004220 -0.007351 -0.004206 -0.007951 -0.008320 -0.001249 0.007975 -0.003757 0.005414 -0.009930 -0.005532 -0.003305 -0.006237 0.005316 0.000288 0.009905 0.008567 0.000889 0.007867 0.008221 0.007615 0.003585 -0.009900 -0.002206 0.003595 
quick -0.005715 -0.004071 0.000440 -0.006784 0.004253 -0.008426 0.006178 -0.009471 -0.002408 -0.004032 -0.002804 -0.003145 0.001139 -0.003180 -0.009618 -0.002547 -0.004251 0.003934 0.004766 -0.009505 -0.003730 0.000595 -0.006228 0.002697 0.002174 -0.004864 0.000142 -0.005161 0.007132 0.001521 0.000576 -0.001785 0.008873 0.007950 0.005856 0.007892 0.009408 -0.003588 -0.004105 -0.005959 0.001354 0.005106 -0.005886 0.002494 0.009111 0.004652 0.003041 -0.004459 0.004841 -0.007107 0.001640 0.005133 -0.008065 -0.002325 -0.007117 0.000288 -0.006507 0.008187 -0.007894 0.004038 -0.006224 0.002105 0.007222 0.006410 0.008685 -0.001220 0.003237 0.007158 0.000856 0.001819 0.003606 -0.009302 0.002967 -0.002062 0.005683 0.000755 0.006213 0.006259 -0.007344 0.001055 0.005889 0.009776 0.009879 0.008480 -0.003054 -0.007867 0.004089 -0.001984 -0.006715 -0.007866 0.004217 0.003118 0.008721 0.009063 -0.005126 0.002404 -0.001226 -0.003252 0.004121 0.008029 
fox 0.005934 0.008714 0.003415 0.004905 0.002688 -0.000769 0.008698 0.006955 0.000436 -0.003081 0.009510 -0.009992 0.006031 0.001972 -0.007158 -0.005534 0.007296 0.009618 0.002696 0.006731 -0.006630 -0.008235 -0.000397 0.000530 0.000991 -0.000127 0.006808 -0.003329 0.005587 0.000500 0.005741 -0.005887 -0.003014 0.007079 -0.008440 -0.001691 -0.001180 0.007762 0.004963 0.000401 -0.002642 -0.002930 -0.006612 0.008346 0.004919 -0.004981 -0.001594 0.002233 -0.004346 -0.004665 -0.003345 0.005463 -0.006203 0.006620 -0.009071 0.008626 -0.005460 0.001969 0.009464 -0.008176 -0.008734 0.007172 0.001111 0.003452 0.001122 -0.001682 0.006573 -0.009655 -0.003863 -0.007805 -0.000930 -0.006584 0.001100 -0.004501 0.004481 -0.004308 -0.008187 -0.009833 0.004845 0.000226 0.002180 -0.005360 0.001274 -0.003979 0.002175 0.008486 -0.006942 0.006008 -0.006137 -0.000336 -0.001191 -0.008749 0.005815 -0.002923 -0.006592 -0.004766 0.006148 -0.008274 -0.006952 0.009044 
