8 100
jumps -0.000657 0.007267 0.005158 -0.009276 -0.009483 -0.004011 0.000098 -0.008040 -0.005197 -0.003902 -0.000172 0.005002 -0.005303 -0.000938 0.006026 0.009049 -0.000178 0.008073 -0.001969 -0.008414 0.009825 0.007836 0.004627 0.006861 -0.002187 -0.005077 0.004352 -0.001758 0.003686 0.004456 0.009170 0.006735 -0.001285 -0.003093 0.006468 0.002056 0.007442 0.000999 -0.008622 -0.005980 0.007379 0.008198 0.009648 0.001564 0.002652 -0.000446 -0.003390 -0.008024 0.006767 -0.007268 0.009040 -0.004245 0.003795 -0.007774 0.002572 -0.006958 -0.008891 -0.001631 -0.003437 -0.002742 0.005865 -0.008063 -0.001894 -0.006685 -0.003517 -0.001976 0.009494 -0.007470 0.003986 -0.001292 0.006999 0.002398 0.000119 -0.000015 -0.004404 0.009656 0.006447 0.001695 -0.009687 0.001899 -0.006394 -0.005486 0.008071 0.008482 0.003846 0.001361 0.008363 -0.006447 0.001731 -0.008311 -0.009115 0.005430 -0.006259 -0.000132 -0.003770 -0.009220 -0.001929 -0.001852 0.008020 0.005298 
over -0.007283 -0.009631 0.008286 0.003934 0.000700 0.000242 0.009405 0.000662 0.001303 0.007344 -0.006395 0.006831 0.009043 0.002296 0.005186 0.006220 -0.008379 0.004489 -0.000157 -0.007916 0.006329 -0.002405 -0.000257 0.005606 -0.001635 0.002760 -0.001887 0.005659 -0.004346 -0.003565 0.004937 -0.002585 0.003027 0.009621 -0.001393 0.001253 0.008061 -0.008827 -0.007890 -0.009972 0.003157 -0.009893 -0.009040 -0.002146 0.009948 0.003579 0.005229 -0.009805 0.005366 0.007167 -0.002852 0.003630 0.008375 0.004353 0.004843 -0.009459 0.003440 0.009223 0.003001 -0.003588 -0.002017 0.002222 0.004051 0.003506 -0.000104 0.002019 -0.006308 0.003929 -0.002521 0.003910 0.005763 0.001945 -0.004280 0.008758 0.004265 -0.000792 -0.005681 -0.000372 0.005023 0.008302 -0.001613 -0.009484 -0.000488 -0.007763 -0.008823 -0.004271 -0.003527 0.009421 -0.000755 -0.006332 0.000635 -0.005814 0.003888 0.000485 -0.006965 -0.006575 -0.002928 -0.002951 0.005277 0.003322 
quick 0.002118 0.007180 -0.004829 0.006196 -0.007172 -0.005527 -0.008002 -0.003916 -0.006036 0.006680 0.006673 -0.003621 -0.006129 0.008485 0.004577 0.008691 -0.007957 0.007907 -0.000420 -0.000359 0.007254 -0.004262 -0.008577 0.000302 0.009482 -0.007298 -0.003524 0.004742 -0.009554 0.008471 0.001061 0.007181 -0.006965 -0.002378 -0.005784 0.008536 -0.006504 -0.002852 -0.009246 0.002502 0.001490 -0.007978 -0.003662 0.007483 0.000197 -0.004386 0.007489 0.001502 -0.006772 -0.007841 0.005418 -0.005248 0.002293 -0.009285 -0.001513 0.009492 0.006351 -0.009087 0.005012 -0.003631 -0.007996 0.007398 -0.003240 -0.008267 0.003012 -0.002667 0.000090 0.004219 0.000202 -0.009138 -0.009449 -0.005096 0.000246 0.003385 -0.002547 0.004643 0.006498 -0.008657 0.007897 0.006730 0.001663 0.003316 0.003099 0.000094 -0.000464 0.006363 0.009443 0.000661 -0.003803 0.001519 -0.007043 0.006862 0.006248 -0.009375 -0.006595 -0.000979 -0.004707 -0.008740 0.008925 0.006256 
the 0.008393 0.000831 -0.002468 0.004929 -0.006557 0.006763 0.001500 -0.002593 0.001543 -0.002287 0.003429 -0.006718 0.003057 -0.006987 -0.006773 0.004763 0.002859 -0.003809 0.004683 0.005204 -0.006650 0.009212 0.008364 0.008612 -0.008625 0.009013 0.003252 -0.004852 -0.000734 -0.001513 0.009566 0.004867 -0.004790 -0.003206 -0.004125 0.008123 0.007130 -0.008181 -0.004321 0.006183 -0.008753 0.002733 0.000072 0.002284 -0.009462 0.009945 0.009752 0.009149 0.006642 0.005732 -0.008534 -0.006641 0.001219 -0.002146 -0.005088 -0.006155 0.002919 -0.008139 -0.004361 0.005020 0.001755 -0.009681 0.005853 0.002295 0.006247 0.004818 0.002574 0.007301 -0.008926 -0.003951 0.007440 -0.003057 -0.000065 0.004980 0.004776 -0.003400 -0.009354 0.007501 -0.009706 0.004305 -0.009756 -0.003517 -0.004136 -0.002689 -0.003775 -0.000048 -0.004061 0.006968 -0.003519 -0.005693 0.001256 -0.003409 0.001392 0.005491 0.001586 -0.008877 -0.008246 -0.001238 0.005546 -0.001389 
brown 0.008934 0.001079 -0.006877 -0.001208 -0.007694 -0.001012 0.001294 -0.005366 0.006458 -0.004070 0.003516 -0.008208 0.008549 0.002650 -0.004661 -0.002878 0.007817 -0.009223 0.005206 -0.000373 0.006497 -0.007076 0.008180 0.005455 -0.006676 0.002528 -0.002328 0.000913 -0.003029 0.004657 0.003094 0.006402 -0.006091 0.001125 -0.000017 0.002099 0.001253 -0.003309 0.005127 -0.006424 0.008757 0.009070 0.000689 -0.009999 0.007876 -0.007772 -0.003271 0.006918 0.007014 -0.001400 0.004002 -0.005085 0.005014 0.005294 -0.002584 -0.006158 -0.005509 -0.001385 0.000699 -0.000953 0.005069 0.003308 0.000061 -0.000560 0.009745 0.000936 -0.006987 0.002760 0.000260 -0.006251 -0.004613 0.006573 0.008702 -0.001626 -0.005110 0.003537 -0.007291 0.008087 -0.006081 -0.005270 0.004521 0.000181 0.005850 0.007992 0.006786 0.005019 0.004386 0.006681 0.002113 0.001511 -0.000045 0.002897 0.001970 0.006680 -0.001556 -0.009293 0.004120 -0.001809 -0.000953 0.009564 
dog 0.009797 0.002956 0.002930 0.002143 -0.005496 -0.003834 -0.003791 0.002834 -0.002002 -0.002716 0.001218 -0.003484 -0.003869 -0.009207 0.002499 0.002959 0.000711 -0.008618 -0.006355 0.005936 0.005311 0.006552 -0.006761 0.004479 0.002726 0.001053 -0.001341 0.009816 0.003533 0.005256 -0.008290 0.005724 -0.000910 0.002581 -0.006045 0.008441 0.008820 0.008934 0.003243 -0.007748 0.007627 0.001509 0.006168 0.002258 -0.005020 -0.003889 -0.007513 0.007017 -0.001343 -0.000243 0.002870 0.003682 -0.009887 -0.005309 0.003955 0.006559 -0.002864 0.006461 0.009856 0.009902 -0.001343 0.007993 0.008147 0.008650 -0.003855 0.000036 0.003739 -0.007651 -0.005686 0.004254 -0.004646 -0.002210 -0.005699 0.009392 -0.004027 -0.005408 0.001705 -0.004765 0.009865 -0.003790 -0.003881 -0.003419 -0.002386 0.003685 -0.003165 0.009629 0.005749 -0.006850 0.001068 0.002406 0.007657 -0.000623 -0.003291 0.005470 0.009745 0.009095 -0.006220 0.004746 -0.001906 0.002000 
lazy 0.003836 0.008643 -0.004810 0.004652 0.006458 -0.005497 0.004395 0.004003 -0.002339 0.008737 -0.007896 -0.003242 0.004411 -0.002139 0.007842 -0.006189 0.009664 0.002117 -0.002979 0.008755 -0.003050 -0.002533 -0.004304 -0.004963 0.009119 0.007624 -0.007798 0.002343 -0.009167 0.001014 0.000874 -0.002148 0.008889 -0.000748 0.009967 -0.006914 -0.001705 -0.009279 0.007063 -0.003884 -0.002425 0.006896 0.001512 0.001232 0.009236 0.003416 0.007544 -0.004195 0.005432 -0.005750 -0.001378 -0.003084 -0.007182 -0.000000 0.009180 -0.001191 -0.007521 -0.004357 -0.009795 -0.009090 0.006329 0.000333 -0.003367 0.005620 0.007784 -0.007016 0.007995 0.001895 0.006175 0.009544 -0.001583 -0.000781 -0.006641 0.008595 -0.005729 0.003324 0.002876 -0.007428 0.008796 0.005120 0.009109 0.008523 -0.004869 -0.005064 -0.009120 -0.002828 0.000631 0.000095 0.005802 0.006360 -0.009021 0.007648 -0.002819 0.001528 -0.001023 0.009466 0.003819 0.002949 0.003906 0.000383 
fox -0.007931 0.005762 -0.005475 0.004717 0.004589 0.007804 0.002934 0.007159 -0.000033 -0.008913 0.007116 -0.002625 0.001811 -0.006479 0.000777 -0.007856 0.001609 -0.000364 -0.007842 -0.004233 0.007319 -0.006387 -0.007920 0.007158 0.007460 0.004278 0.002469 0.009076 -0.009519 -0.001540 0.001679 -0.002798 -0.000507 -0.003855 0.007493 -0.008757 0.005342 0.008903 -0.000048 0.005973 0.006630 0.007146 0.009137 -0.006343 0.007758 0.003619 0.009891 0.000341 0.000262 -0.004678 -0.008572 0.000979 0.003011 0.007781 0.009231 0.003434 0.001005 -0.003548 0.004888 -0.005154 0.003817 0.006642 -0.006540 0.005563 0.009208 0.008684 0.002044 -0.002073 0.009444 -0.001628 -0.003533 0.008199 0.001535 -0.005763 -0.003649 -0.000611 0.008758 0.004779 -0.005416 -0.005154 0.003974 -0.003776 0.006538 -0.005925 0.006816 0.009385 0.005370 -0.000419 0.006279 -0.004476 -0.002971 0.004523 0.003363 0.007761 0.002977 0.001089 -0.000458 0.009839 0.007338 -0.002755 
