8 100
quick -0.007387 0.000378 0.002277 0.001544 0.006465 -0.008494 -0.007651 -0.008361 -0.008085 -0.000501 -0.008797 0.007336 0.007694 0.006414 0.008457 0.001251 0.005529 0.004608 0.002159 -0.000341 0.001242 0.004791 -0.001311 0.005985 0.000432 -0.001731 0.008874 -0.000025 0.004014 0.002238 -0.008033 0.007328 0.007463 0.002095 -0.002350 0.001957 -0.007126 0.006934 0.001628 -0.009800 -0.007645 -0.006757 -0.006471 -0.000162 0.002186 0.004539 -0.006717 0.005448 0.005667 0.005974 0.009176 -0.003731 0.000691 0.005446 -0.009322 0.008327 -0.007490 -0.001120 0.000577 -0.003438 -0.009020 0.001713 0.000554 0.009669 0.008981 0.007597 0.000603 0.003723 -0.005100 0.007097 -0.005799 0.006372 -0.003170 0.000854 -0.005215 0.003038 -0.005592 0.000358 -0.007950 0.007602 -0.001055 -0.009978 -0.008261 0.009849 0.000061 0.008374 0.004203 0.009065 0.006200 -0.001731 0.004133 -0.001682 -0.007142 -0.003474 -0.005482 -0.005023 0.004535 0.008637 -0.005624 0.003811 
jumps -0.007043 -0.008557 0.006269 -0.009702 -0.004901 -0.007571 0.005304 0.005669 -0.002644 0.008427 -0.006319 -0.005069 0.005396 0.004590 -0.004016 -0.009334 -0.007428 -0.008922 0.006784 0.003984 -0.000334 -0.004327 0.006294 -0.009119 -0.005749 0.004332 0.001282 -0.003620 0.009080 -0.000979 -0.004739 -0.001447 0.004683 -0.002098 0.005163 -0.002592 0.002369 0.009047 -0.009640 0.007196 0.007330 0.001009 0.008662 0.009776 0.007787 -0.002140 0.009570 0.004381 0.000205 0.006417 -0.001133 0.000197 0.009463 0.002184 -0.002497 -0.000386 0.000189 -0.006908 0.009436 -0.003131 0.003968 -0.000857 -0.001514 0.000594 -0.008426 -0.000002 0.009217 0.009402 0.007773 0.005315 0.004700 -0.007676 -0.001118 0.001401 -0.003061 -0.005419 -0.009440 -0.007352 0.000390 0.003708 0.006617 0.003606 0.002088 0.002335 0.005544 -0.003360 0.006984 0.005246 -0.000826 -0.006231 0.005830 -0.001806 -0.009660 -0.004028 0.006942 -0.000702 0.004491 0.009400 -0.008710 0.007165 
fox 0.000897 -0.007127 0.000385 0.000628 -0.008304 0.007993 0.009847 0.009262 0.008869 -0.004121 0.005166 -0.002571 0.006933 -0.006333 0.003971 -0.004657 0.001514 0.003788 -0.009237 -0.009371 0.005758 -0.003380 0.008734 0.005764 0.007947 0.008982 -0.001800 -0.004797 0.006282 0.009441 -0.002432 0.009089 0.002297 0.009048 0.005388 -0.006843 -0.006922 -0.000594 -0.007369 -0.000402 -0.007388 0.009047 -0.003211 -0.002058 -0.007359 -0.001863 0.008663 -0.001593 0.005935 -0.007912 -0.004166 0.000754 0.006699 -0.009995 -0.000681 0.001432 -0.006871 0.000030 0.001651 -0.002090 -0.001623 -0.004388 -0.005027 -0.005003 0.009920 -0.000026 -0.008252 -0.000287 -0.006081 -0.001320 0.008771 -0.002667 -0.007854 -0.009290 0.006608 0.003222 -0.003047 -0.004328 0.005445 0.006292 0.006756 0.007226 -0.004405 0.004065 -0.001989 0.006909 -0.007753 0.005498 -0.001663 -0.005722 -0.009178 0.003847 -0.001708 0.001530 -0.005114 0.008924 0.004162 -0.003570 0.003689 0.000558 
the -0.000932 -0.006856 -0.000933 -0.000635 0.007864 -0.000562 -0.002841 -0.002401 -0.002023 -0.001927 -0.007346 0.008229 0.006991 -0.000072 0.003280 0.004706 0.009985 -0.007007 0.001750 0.001419 0.003512 -0.008809 -0.006951 -0.003778 0.001730 0.003862 -0.009978 0.002788 0.007093 -0.008518 0.005370 0.002903 -0.009710 -0.007311 -0.009347 0.000151 -0.006590 0.004645 -0.007050 -0.001710 -0.005102 0.007908 -0.006172 0.004048 -0.000804 -0.005578 0.000750 -0.006367 -0.004056 0.009797 0.007821 -0.007171 -0.007657 0.003956 -0.007431 -0.008908 -0.005494 0.003126 0.000768 0.003367 0.003381 0.003848 -0.006944 -0.006089 0.001079 -0.009446 -0.004899 0.000437 -0.006164 -0.006272 -0.001371 0.000550 0.002113 0.006391 -0.001463 -0.006836 0.007614 0.004870 -0.001221 0.009228 0.006629 -0.008211 0.005965 0.002912 0.007316 0.007375 0.005726 -0.004547 -0.003941 -0.000759 0.002611 -0.000156 0.003807 -0.004837 -0.008534 -0.000141 -0.003946 -0.003011 -0.004377 -0.003412 
over -0.000915 -0.002886 0.003705 0.004659 0.005703 -0.008618 -0.000948 -0.006283 -0.009858 0.004415 -0.007638 0.006148 -0.009417 -0.007820 -0.005369 -0.005130 0.001265 -0.008492 -0.002625 -0.007225 -0.004330 0.001883 -0.002030 -0.005665 -0.003517 -0.001726 -0.001454 0.003360 -0.001855 -0.000662 -0.007832 0.001856 -0.004091 -0.002510 -0.000350 -0.001822 -0.006703 0.008723 0.003305 0.008754 0.004059 0.001682 -0.000031 -0.007951 -0.008345 0.007135 0.006304 0.007499 -0.000936 -0.004583 -0.005443 -0.006156 -0.005380 0.006365 0.002478 0.008477 0.001615 0.009998 -0.007712 -0.007337 0.004395 -0.000250 0.005282 0.005733 -0.002179 0.002648 0.003298 -0.007655 -0.006241 0.003585 -0.002842 -0.007985 -0.007700 -0.004147 -0.001490 0.001648 0.001695 -0.003082 -0.007795 -0.007698 -0.003781 -0.003504 -0.003959 0.001099 0.003149 0.007233 0.004471 -0.002846 -0.005400 -0.004731 0.002911 -0.002448 0.000503 -0.008040 -0.002125 0.002281 0.004024 0.003098 0.001346 0.009175 
lazy 0.007532 -0.004735 0.002799 -0.004302 0.001636 0.001507 -0.004510 0.000042 0.004765 -0.004388 -0.003320 -0.004061 0.006319 0.005232 -0.001676 -0.003329 0.008755 -0.000073 -0.002533 0.009873 0.009457 0.001209 0.000495 -0.006303 -0.006191 -0.009607 0.009217 -0.007080 0.003845 0.004596 0.008331 -0.004479 0.005398 -0.001678 -0.001293 0.001859 -0.003418 0.003155 -0.009158 -0.009343 0.002213 -0.007312 0.009699 -0.002690 -0.009279 -0.003829 -0.006055 0.009622 0.004519 0.000525 -0.004515 0.009216 -0.000543 -0.003398 -0.003575 -0.009816 0.002075 0.001404 0.004947 -0.001691 0.003744 -0.004644 -0.000720 -0.005189 -0.000318 -0.002561 -0.007548 -0.004435 -0.006261 -0.005801 -0.008016 0.007804 -0.007417 -0.006846 0.005406 0.007221 -0.006990 0.005001 -0.008631 -0.007128 0.002888 -0.009157 -0.005757 -0.003960 0.001768 -0.006632 -0.005833 0.004491 0.008342 0.007274 -0.001582 -0.006250 0.006277 0.009857 -0.003482 0.007758 -0.003348 0.002556 0.008630 -0.002790 
brown -0.008329 0.005451 0.008392 0.003315 -0.000007 -0.003389 -0.003753 0.007013 -0.008564 -0.007195 0.007379 -0.004289 0.007755 -0.002244 -0.002733 -0.006350 0.004778 0.005430 -0.007896 -0.003650 0.006341 0.009606 -0.009690 0.003408 0.009834 0.004029 -0.000258 -0.006581 0.005351 -0.004889 -0.006280 -0.004307 -0.005289 0.007412 -0.007219 0.003759 -0.004344 -0.007710 -0.009403 -0.003761 0.009354 -0.005582 -0.007762 0.005591 0.000170 0.009843 0.001368 0.004363 -0.006891 0.005166 0.007739 0.004195 0.000664 0.003517 0.002719 0.009745 0.001525 -0.001638 -0.007065 0.000826 -0.005733 -0.009015 0.006833 -0.003379 -0.004649 0.005665 0.004427 -0.004788 -0.005697 0.003874 0.003274 0.009726 0.007341 -0.008843 0.005695 0.009145 0.005800 0.003139 0.006918 -0.004300 -0.009514 0.004787 -0.003866 -0.008244 0.007507 0.007371 0.009538 -0.000455 0.004124 0.004626 0.001311 -0.006776 0.004677 -0.003058 -0.007793 0.002257 0.004371 -0.006865 0.005681 -0.006861 
dog -0.000583 0.005127 -0.003696 0.007613 -0.000546 0.009911 -0.002530 -0.001656 -0.006541 -0.000599 0.007501 0.005338 0.008869 0.009601 0.009081 -0.000913 -0.008107 0.006117 0.003987 0.006510 0.008004 -0.004897 -0.001537 -0.003051 0.002783 0.009329 0.000541 -0.006500 -0.004803 -0.009147 0.003415 -0.004984 0.009331 0.006879 -0.008915 -0.002998 -0.006647 -0.001270 -0.009304 0.004356 0.002223 -0.005672 0.003504 -0.000723 0.008899 0.002499 -0.001983 -0.004893 0.005197 -0.001713 0.000110 -0.002286 -0.000879 0.000194 -0.009534 -0.000770 -0.007935 0.004378 0.006552 -0.002603 0.000880 0.000872 -0.005993 0.002820 0.003820 -0.004865 -0.009413 -0.008262 -0.006477 -0.003833 0.003805 0.005984 -0.003460 0.001047 -0.003301 -0.004301 -0.004865 0.003943 -0.009149 0.000295 0.008362 0.000728 0.005704 -0.005386 -0.003384 -0.004820 0.001800 -0.001325 0.005679 -0.004022 -0.005403 -0.003880 0.004874 -0.009153 0.008179 -0.007340 -0.003301 0.000698 -0.000793 0.001255 
