8 100
brown -0.008466 0.008637 0.002210 -0.003287 0.002370 0.009108 0.008499 -0.007674 -0.007833 0.005496 -0.007343 -0.004773 0.007739 -0.005352 -0.009551 0.005754 -0.008825 -0.004149 -0.001080 0.001192 0.000877 0.001949 0.008930 0.001335 -0.006127 0.002966 0.002392 -0.001559 -0.002302 0.009165 0.005300 -0.005011 0.007503 0.007741 -0.001875 0.006913 0.004001 0.009784 -0.003514 -0.003495 -0.008956 0.009220 0.002684 0.002394 0.004382 0.009562 -0.000634 -0.000394 0.001337 -0.009882 -0.004531 -0.000141 -0.002631 0.008195 0.009599 0.005632 -0.003715 -0.002953 0.007076 0.002923 0.007223 0.002846 -0.009949 0.004515 -0.000251 -0.008528 -0.004009 -0.001553 -0.006288 -0.004102 -0.000771 -0.002370 -0.001716 0.005888 0.008044 -0.001850 0.006760 -0.007775 0.006170 -0.003498 -0.007352 -0.005850 -0.000817 0.001066 -0.005521 0.001180 -0.002462 0.006500 -0.004892 -0.001357 -0.007832 0.006367 -0.002481 0.000371 0.005543 -0.009691 0.008250 -0.003967 0.003156 0.006133 
over -0.002268 0.008659 -0.000757 0.009012 -0.006682 -0.001710 0.000994 -0.008709 0.005515 -0.007118 -0.009932 -0.005762 0.009561 0.001569 0.009753 0.003070 0.003674 0.000370 0.007766 0.000198 0.007734 0.000167 0.004675 0.003617 -0.001164 0.005283 0.000198 0.000855 -0.001169 0.009447 0.001365 -0.002848 -0.004335 0.002745 -0.006046 0.000623 -0.009425 0.004081 -0.008125 -0.000429 -0.008967 -0.000630 0.006848 -0.008967 0.004627 -0.000263 0.000510 0.007111 0.008711 0.000251 0.001406 0.001837 0.003322 -0.002001 0.006016 0.006222 0.007349 -0.000648 0.006346 -0.008990 -0.009527 -0.008481 -0.006852 -0.000713 0.001977 -0.001675 -0.003277 0.000143 0.003044 -0.005576 -0.000666 -0.002121 0.004725 -0.006557 0.006077 0.001226 0.001117 -0.000516 0.001157 -0.007584 -0.009909 -0.008390 -0.003829 0.002645 -0.000749 0.004897 -0.007369 0.006965 0.003678 -0.003795 0.002733 0.008172 0.008312 0.003777 -0.001139 -0.006026 -0.006926 -0.000524 -0.000379 0.008734 
lazy -0.003919 -0.004753 -0.000034 -0.005484 -0.005398 -0.000947 0.001718 0.001620 -0.004141 0.005957 -0.001316 -0.008000 -0.005156 -0.009434 0.002160 -0.009650 0.001141 0.001262 -0.000201 -0.004993 -0.008191 0.003200 0.007906 0.002822 0.004280 0.002794 -0.006458 0.005750 0.001208 0.006184 -0.005800 -0.006603 0.009465 0.000228 0.007365 -0.007058 0.008328 -0.004657 0.003912 0.009651 -0.009330 0.004407 0.007605 -0.009874 -0.002369 0.007608 -0.004422 0.004493 0.009143 -0.005913 0.008954 -0.001829 0.000793 0.000702 -0.003759 0.008690 -0.000132 0.008137 -0.003200 0.009679 -0.009466 0.006896 0.004411 0.004016 -0.003700 0.002243 -0.000526 0.001705 -0.004558 -0.007606 -0.001244 0.004140 0.008229 0.008129 -0.004562 -0.002848 0.001907 0.006415 -0.009487 -0.001534 -0.001703 0.003692 -0.004146 -0.000275 0.001942 0.004242 0.003972 0.006874 0.005400 0.000931 0.002273 -0.006849 -0.000685 0.002542 -0.003277 -0.002275 -0.005949 0.000117 0.000412 0.004992 
jumps -0.008230 0.006879 -0.006332 -0.000948 0.002526 0.007507 -0.008854 0.008432 0.004136 0.002699 0.005955 0.000485 0.004179 0.009840 0.008268 -0.004227 0.009634 0.001074 -0.004426 0.000289 0.007378 0.006615 -0.009048 -0.008665 0.005623 -0.008209 -0.007832 0.003418 -0.001195 -0.008452 0.000482 0.009214 -0.000113 -0.000306 0.007733 0.007988 -0.008642 0.001011 -0.001302 0.005622 0.001418 -0.009773 0.007681 0.004651 -0.003609 -0.009356 -0.003048 0.003805 -0.002340 0.009205 -0.005574 -0.009457 -0.002919 -0.008805 0.007154 0.004408 -0.000850 0.005151 0.005617 0.004323 -0.009699 0.007887 0.007568 -0.004530 -0.006592 0.010096 0.003487 0.003509 -0.002979 -0.008247 0.005972 0.004512 -0.006545 -0.004395 -0.009135 0.001171 0.001204 0.006902 0.004353 0.005662 0.004331 -0.008129 0.008285 -0.003470 -0.006032 -0.007552 -0.005465 0.008227 -0.001287 -0.006500 0.001137 -0.008827 -0.003004 0.008630 -0.006079 0.006720 -0.002807 0.006056 0.004043 0.000582 
the 0.009432 -0.004714 0.002148 -0.006499 -0.004619 -0.006542 -0.003617 0.009025 -0.000897 0.008419 -0.005809 -0.001809 -0.005798 0.007451 -0.007912 0.009469 0.000320 -0.009873 0.001453 -0.005094 -0.002095 -0.001875 0.005705 -0.002911 -0.005894 -0.003480 -0.002701 0.003331 0.007448 -0.007115 0.000564 -0.009281 -0.000251 -0.008685 0.005515 -0.008244 -0.004587 -0.007504 -0.008399 -0.009658 0.009326 -0.003713 -0.001685 -0.000396 -0.000465 0.008063 -0.006678 -0.008406 0.007609 0.007149 -0.004767 -0.004511 0.003196 -0.007389 0.009003 -0.008046 -0.003766 -0.008811 0.008667 0.001815 0.006231 0.007206 -0.008761 0.003919 -0.006940 -0.005801 0.000417 0.000859 -0.007617 -0.000702 -0.003306 -0.006963 0.002989 -0.004301 0.008457 0.007603 0.009263 0.005650 -0.007068 0.007572 0.009398 0.003678 -0.004429 -0.009619 0.005574 -0.006467 0.007209 -0.008897 -0.005695 0.005094 -0.005451 0.003728 -0.000454 -0.000957 -0.005536 -0.009270 0.002003 -0.006336 -0.005284 -0.009200 
dog 0.009318 0.008881 -0.009401 0.009733 0.005629 0.005533 -0.004338 0.003385 0.005194 -0.006542 0.010075 -0.006103 0.007209 -0.000923 0.001047 -0.002168 0.001134 -0.008153 0.004776 -0.004801 -0.001891 0.004401 -0.007135 0.007149 0.008300 0.001008 -0.004715 -0.000220 0.006787 0.007441 -0.005822 0.002301 -0.004456 -0.008603 -0.003746 0.001906 0.003133 0.001036 -0.007667 -0.003886 -0.006565 -0.009085 0.005369 -0.008703 -0.008061 -0.005965 -0.004993 0.002116 0.007138 0.009414 -0.009298 0.006582 -0.002830 0.004962 -0.005627 -0.005622 -0.003271 0.010030 -0.007424 0.007422 0.005504 0.001807 -0.001165 0.006230 0.005922 0.008120 -0.007365 -0.002910 0.005444 -0.008364 0.004873 0.009177 -0.004896 -0.006851 0.002332 0.006241 -0.009520 0.009375 0.006631 0.001803 0.001375 0.001878 -0.009097 -0.002189 0.008332 0.003613 -0.005481 0.000167 0.000918 -0.002938 0.007244 -0.007005 0.002468 0.005021 -0.004766 0.008487 -0.001598 -0.005325 0.005441 -0.006371 
quick 0.004278 0.000986 -0.009300 -0.000980 0.003477 -0.009397 0.000269 -0.005773 -0.003362 0.008308 -0.006137 -0.001186 0.001914 -0.004851 0.006401 -0.004923 -0.005908 0.005000 0.009806 -0.008923 -0.002915 -0.008193 -0.001130 0.003677 0.005731 -0.000120 -0.005999 0.006218 -0.007365 0.005206 -0.007829 0.002320 -0.002044 -0.009790 0.002127 0.006996 -0.004186 -0.000306 0.007270 -0.006909 0.003148 0.004131 -0.008911 0.008434 -0.008447 0.006941 0.007114 0.009266 -0.007694 -0.000255 0.009788 0.009136 -0.000123 -0.007026 -0.006761 -0.002665 0.000455 0.005923 -0.001266 -0.008786 -0.001648 0.001874 0.003537 -0.000458 -0.000233 -0.006869 0.004075 -0.004287 -0.002987 -0.003357 0.007989 0.006487 0.002547 0.007758 -0.009437 -0.009467 -0.006737 -0.005721 0.004831 0.000814 0.001150 -0.009820 0.007396 -0.005198 0.003103 0.004860 -0.003326 0.007553 0.000537 0.002392 0.003290 0.006620 0.005415 -0.009162 -0.003231 -0.008180 0.004355 -0.004123 -0.003569 0.007929 
fox 0.006986 -0.006780 -0.004926 -0.008965 0.001600 -0.004897 0.003060 0.005094 -0.003477 -0.004227 0.006035 0.001422 -0.004981 0.001292 0.000087 0.009388 0.007185 0.006709 0.000633 -0.004025 -0.001009 -0.004082 0.005044 -0.009010 -0.004840 -0.004175 -0.005162 -0.005203 0.001872 -0.001176 -0.003569 0.003252 0.000206 0.006878 0.003647 0.001377 -0.006428 -0.009226 0.009242 -0.004833 0.008621 -0.008286 0.006559 -0.009464 0.000381 0.009253 0.005066 0.005007 0.002623 -0.008624 0.005117 0.003200 -0.007278 0.008643 0.006200 -0.007358 -0.005471 -0.007068 0.000434 -0.001377 0.006453 -0.000331 0.000438 0.003050 -0.004738 0.009508 -0.008451 -0.006305 0.007194 -0.005424 -0.008458 0.009189 0.003289 -0.004600 -0.008317 -0.005847 0.001731 0.006965 0.005387 0.002313 0.005765 0.006610 -0.002692 -0.005330 -0.006299 -0.008880 0.003467 -0.007486 0.005970 -0.009431 -0.003492 0.000958 0.004036 0.005641 -0.008549 -0.005028 0.002969 0.001247 0.002874 -0.007647 
