8 100
lazy 0.002579 -0.004593 -0.008169 0.006223 -0.005410 0.003596 0.002635 0.004439 0.007797 0.000175 0.007101 0.008574 0.003624 -0.000508 -0.001959 0.001119 -0.002566 -0.004680 -0.008053 -0.000381 -0.009949 0.003071 0.007539 0.007603 0.002278 -0.009145 -0.000748 -0.002524 -0.004477 0.004807 -0.005420 -0.001031 0.009092 0.000012 -0.005459 0.003528 0.003700 -0.003379 0.000786 0.000480 0.005683 -0.006676 -0.002158 0.001180 0.000224 -0.000027 0.009316 0.007546 0.005889 0.001228 0.006155 0.006242 -0.005687 0.001306 0.004994 -0.006913 -0.006994 0.004267 -0.003398 0.009646 0.000707 0.004167 -0.005564 -0.005934 0.009849 -0.009881 -0.009901 -0.003260 0.000312 0.004463 0.001700 -0.006578 0.006287 0.004807 -0.003695 0.004260 0.006634 0.004759 -0.006336 0.005319 0.009701 -0.001199 -0.000332 -0.004497 -0.005491 -0.002085 -0.003474 -0.007627 -0.004275 -0.008679 0.002761 0.001574 -0.000888 0.001743 0.001000 0.006986 -0.001025 0.008369 0.007479 0.008640 
dog -0.000123 0.009025 0.003531 -0.008102 0.000995 -0.005525 0.005381 0.002328 0.002849 0.009747 0.006536 -0.007957 -0.006580 0.003747 -0.009916 -0.003331 0.008144 -0.002796 0.002430 -0.006378 0.009090 0.004956 -0.003686 -0.002353 -0.009090 -0.004331 -0.003596 -0.007845 -0.008619 0.004475 -0.000206 0.009504 0.009880 0.004352 -0.002329 -0.007992 0.003176 0.000875 -0.002971 0.006995 -0.003793 -0.008776 -0.003898 0.004127 -0.004034 -0.007187 -0.000208 -0.006102 -0.004492 0.008682 0.007714 0.004014 -0.002596 -0.004969 -0.001260 -0.009878 -0.003422 0.007472 -0.006384 -0.008998 0.001551 -0.008348 -0.004573 0.006785 -0.006876 -0.008865 0.007510 -0.004787 -0.004079 0.000286 -0.009306 -0.004492 0.008587 0.004870 -0.005662 0.004240 0.009895 -0.006954 0.006831 0.006997 -0.004558 0.001732 -0.006167 0.003645 -0.007851 0.002333 0.009142 0.001521 -0.003995 -0.008957 -0.008555 0.002624 0.005757 -0.002844 0.003488 0.003169 0.006225 0.000133 0.001683 0.003712 
over 0.007471 0.004719 0.006067 -0.002689 0.004420 -0.003756 -0.003813 -0.008040 -0.007645 -0.008582 -0.003724 0.008117 -0.000872 0.001822 0.007039 0.003119 0.000527 0.008755 0.006009 0.005809 0.007051 -0.003177 0.003121 0.004547 0.005595 0.009765 -0.009826 -0.008400 0.000671 -0.000631 0.006187 0.003525 0.008863 0.001340 -0.002749 0.006734 -0.000869 0.009455 -0.007504 -0.006332 -0.009280 -0.008197 0.003982 -0.000587 0.003781 -0.004571 -0.009563 -0.009129 0.002258 0.005151 0.005684 -0.004696 0.008115 0.002519 -0.003175 -0.000626 0.008921 -0.001118 0.005881 -0.006156 -0.006977 -0.005470 -0.009977 -0.008043 -0.006904 -0.005699 -0.004536 0.005798 -0.003371 -0.001822 0.000290 0.007094 -0.002590 -0.005582 -0.003870 -0.000479 0.005162 -0.003726 0.005410 -0.003424 -0.004573 -0.009411 -0.005721 -0.004440 -0.003258 -0.009456 0.008165 -0.001291 0.005922 0.003480 0.008870 -0.009308 -0.004210 0.003200 0.005963 0.009357 -0.001774 0.003864 0.003886 0.004906 
the -0.000362 -0.000844 -0.000506 -0.008630 -0.009434 0.001345 -0.002167 0.004553 0.007853 -0.006895 0.001118 0.007377 -0.007522 0.000995 0.008300 0.001512 -0.008261 -0.007493 0.000684 0.009002 -0.007364 -0.003270 -0.000644 0.007343 -0.009235 0.003421 0.009932 -0.006803 0.004143 -0.008022 -0.002079 0.008946 -0.009175 0.001340 -0.008783 -0.005203 -0.007706 0.000680 0.007840 0.000976 0.004670 0.007623 -0.001576 0.000076 0.001228 0.009381 -0.005981 0.000575 -0.000584 0.007751 -0.004930 -0.008211 0.006261 -0.004174 0.002003 0.000016 -0.008424 0.004753 -0.002341 -0.002465 -0.006087 0.001912 0.004960 0.009418 -0.000959 -0.009664 0.002661 -0.007369 0.008973 0.003528 0.003208 -0.005977 0.000882 -0.005001 0.005417 0.005016 -0.008504 -0.003423 0.009157 0.003714 -0.006889 0.008453 -0.004099 0.001624 -0.007363 -0.002567 0.002284 0.007250 0.000508 0.008670 -0.005220 -0.008963 -0.000692 -0.001318 -0.000104 0.004825 -0.006402 -0.005212 -0.000677 0.006831 
quick 0.007830 -0.001066 -0.007654 -0.004422 -0.007960 0.007357 0.007732 0.007271 -0.009682 0.003953 -0.002864 -0.006656 0.008858 -0.004856 -0.005621 0.001351 0.003672 -0.007820 -0.005013 0.006555 -0.000006 0.001781 -0.004527 0.003967 0.006267 -0.007499 -0.009225 -0.008802 0.003626 0.007361 -0.009240 -0.006216 0.004115 -0.000460 -0.003988 0.009762 0.002727 -0.005453 -0.006237 -0.001112 -0.007365 -0.009552 -0.002615 0.007041 0.003673 0.006679 0.000442 0.001713 0.002148 -0.001592 -0.004134 0.002860 0.005401 0.002578 0.005052 -0.000850 0.001551 0.001103 -0.002291 0.004888 0.001590 0.006049 -0.004617 0.003453 -0.001091 -0.002238 0.003160 0.000884 0.004224 -0.000500 0.000145 -0.000403 0.006711 0.009408 0.005122 0.003150 -0.007236 0.009536 -0.006184 0.008207 -0.009034 -0.004986 -0.004190 -0.008286 0.000037 -0.006877 -0.005885 -0.007191 -0.001730 -0.006121 -0.007046 0.003635 0.009422 0.008484 0.007756 -0.003114 0.009206 0.009112 -0.007167 -0.001281 
brown -0.008950 -0.001817 0.009533 0.008710 -0.002869 0.000321 -0.007287 -0.003998 -0.007578 -0.006634 0.007576 -0.002603 0.003763 -0.009262 0.002175 0.006869 -0.004287 0.005863 0.003209 -0.009885 0.007530 -0.002877 0.003695 -0.000655 0.008442 0.001945 0.001140 -0.003527 0.002181 0.003816 -0.004909 0.002584 0.009891 -0.003419 -0.006887 0.007790 0.001211 -0.003472 0.005092 -0.005573 0.001233 -0.004827 -0.005468 -0.007869 -0.008364 -0.009029 -0.000753 0.000331 0.005442 0.007452 0.005523 0.006558 0.001270 -0.000622 -0.000829 0.007273 0.002835 -0.008892 0.000548 -0.009587 0.007231 0.002431 0.008419 0.001408 0.009886 0.003726 0.005184 0.005792 -0.000534 0.007538 -0.004900 0.000786 0.007937 0.000747 0.006866 -0.000495 -0.005067 0.006711 -0.007523 -0.004540 0.002398 -0.007963 0.009506 0.000468 0.007880 0.002738 -0.007386 -0.002686 -0.004493 -0.000808 -0.009148 0.004755 -0.007820 -0.004997 0.000783 0.003852 0.004871 0.000703 -0.004324 -0.002239 
jumps 0.000384 0.008541 -0.002835 0.003852 0.002796 -0.007531 0.003195 0.007888 0.005247 0.009258 -0.004950 0.009222 0.008303 -0.008861 -0.000879 0.009469 -0.005085 0.004529 -0.007020 0.009537 -0.003519 -0.001505 0.003969 -0.001057 -0.009030 -0.007251 0.007638 -0.006352 0.001418 0.005343 -0.000605 0.006162 -0.006821 -0.009108 -0.004787 -0.005711 -0.001859 0.000880 0.008807 0.004128 0.002052 -0.009343 0.002186 0.002320 -0.005494 -0.000330 -0.006728 0.005611 0.008506 -0.009971 0.006954 0.009778 -0.006794 0.003942 0.003951 0.006816 -0.009092 0.002932 0.000967 -0.009071 -0.004147 -0.005696 0.002094 -0.004834 -0.002651 0.003427 0.003148 0.004883 -0.004887 0.002037 -0.000971 -0.009714 -0.006244 -0.003802 0.009936 0.007946 0.003621 -0.003089 -0.005177 -0.007127 -0.006108 -0.007361 0.000439 0.004072 0.005044 0.008707 0.006784 0.001720 0.001264 -0.008597 0.006276 0.002929 0.003387 0.002148 -0.001361 0.005648 -0.003659 0.004579 -0.009599 -0.003252 
fox 0.004415 0.007925 0.008619 -0.009639 -0.002547 0.001835 -0.005181 0.009330 0.004736 -0.004300 -0.005515 0.009434 -0.009997 -0.003076 0.002927 0.001215 0.009085 0.008562 0.000552 0.005073 0.002675 -0.000004 0.002347 0.003364 -0.007068 0.001624 -0.006214 -0.001867 -0.002688 0.008060 0.009645 0.001184 -0.007411 -0.003143 0.009459 -0.003792 0.003152 -0.006457 -0.007603 -0.005612 -0.008789 0.001307 0.000433 0.002001 0.006658 -0.004354 -0.007636 0.003298 -0.005868 0.001751 0.004404 0.006580 0.008018 0.009494 -0.008468 -0.007106 -0.000707 -0.006440 0.002961 0.002748 0.006178 -0.003768 0.009179 0.007158 -0.008469 -0.001594 -0.008354 -0.009154 0.008889 0.008881 -0.009711 -0.009980 -0.000413 -0.001312 -0.008607 -0.007555 -0.001260 -0.001814 0.000558 0.005976 0.009219 0.008142 -0.004677 0.006923 -0.003582 -0.007678 -0.008263 0.001322 0.000011 0.000104 -0.008617 0.009202 -0.008039 0.000934 0.008160 -0.000025 0.007359 -0.007889 -0.007738 -0.008448 
